<?xml version="1.0"?>
<opencv_storage>
<stage2>
  <maxWeakCount>6</maxWeakCount>
  <stageThreshold>-8.1546324491500854e-01</stageThreshold>
  <weakClassifiers>
    <_>
      <internalNodes>
        0 -1 10533 -7.3960363864898682e-02</internalNodes>
      <leafValues>
        2.3529411852359772e-01 -6.3341069221496582e-01</leafValues></_>
    <_>
      <internalNodes>
        0 -1 81883 -3.4533026337157935e-05</internalNodes>
      <leafValues>
        2.5503379106521606e-01 -3.4855431318283081e-01</leafValues></_>
    <_>
      <internalNodes>
        0 -1 143334 -5.3097847849130630e-03</internalNodes>
      <leafValues>
        3.0689552426338196e-01 -2.5062143802642822e-01</leafValues></_>
    <_>
      <internalNodes>
        0 -1 121241 -4.0789713966660202e-04</internalNodes>
      <leafValues>
        3.1907793879508972e-01 -2.2970132529735565e-01</leafValues></_>
    <_>
      <internalNodes>
        0 -1 80950 3.5319579183124006e-05</internalNodes>
      <leafValues>
        -2.5481745600700378e-01 2.9087853431701660e-01</leafValues></_>
    <_>
      <internalNodes>
        0 -1 80092 2.0785906817764044e-03</internalNodes>
      <leafValues>
        -1.8765293061733246e-01 3.5286274552345276e-01</leafValues></_></weakClassifiers></stage2>
</opencv_storage>
